48 25
</s> 0.009370 0.012902 -0.012508 -0.012536 0.001374 0.016497 0.006481 -0.003283 -0.017208 0.013678 -0.011441 0.005602 -0.004289 -0.004371 -0.017120 -0.003091 0.018516 0.011805 0.019145 0.013424 0.002887 -0.016721 -0.016703 0.023002 0.018167 
is -0.022163 -0.059820 0.077427 0.000039 -0.039490 0.040719 0.001890 -0.024091 -0.026193 0.031815 0.135786 0.076641 -0.023430 0.010786 -0.047105 -0.003020 0.055549 0.021294 0.083393 0.052905 -0.051271 -0.051655 0.051648 0.036629 0.027043 
! -0.037231 -0.032327 0.001017 0.003982 0.011375 -0.010750 0.029653 -0.001323 0.006055 0.004374 0.022644 -0.021955 -0.014413 0.007188 -0.004420 0.013580 0.025511 -0.018960 -0.007623 0.026419 0.019085 0.026182 -0.022227 -0.006880 0.000084 
I 0.000608 -0.023807 0.017869 0.016232 -0.015372 -0.001008 -0.011857 0.015056 0.012889 -0.001203 0.028909 0.024844 0.008543 0.024719 -0.019202 -0.001213 0.000503 -0.012659 0.026205 0.018426 -0.004313 -0.014008 0.008963 0.018701 0.008441 
the 0.001525 -0.028352 0.021505 0.003187 -0.013370 -0.003420 -0.001753 -0.018405 -0.022560 -0.005906 0.026183 -0.007083 -0.013050 0.009607 -0.010201 0.026911 0.005555 -0.019934 0.019469 0.009567 -0.017212 0.002545 0.007418 0.001409 0.012258 
my -0.018473 0.001930 0.007790 -0.011764 -0.000638 0.000596 -0.009692 -0.013057 -0.020173 0.001553 0.002912 0.000946 -0.016371 -0.020006 -0.020702 -0.016333 -0.000431 0.005052 0.007399 -0.011492 0.019380 -0.008507 -0.005117 -0.005538 0.020672 
to -0.068746 -0.022339 0.006276 0.024319 -0.024008 0.051453 -0.005490 -0.042025 -0.042638 0.002178 0.012122 -0.025727 0.007019 -0.015791 0.003202 0.057890 0.060066 0.016726 0.053895 0.057766 -0.037038 -0.023985 -0.022010 0.011042 0.043044 
place -0.017978 -0.018353 -0.016686 0.014935 -0.022748 0.000184 0.011344 -0.024363 -0.022201 0.011184 0.021644 0.019808 0.008485 0.014100 -0.017646 -0.012261 0.023986 -0.012792 0.014061 0.007124 0.005012 -0.006040 0.001433 -0.004980 -0.002645 
live -0.047818 -0.036167 0.030548 0.005416 -0.028110 -0.002629 0.025458 -0.036813 -0.021703 0.047860 0.046514 -0.027506 0.000636 -0.017149 -0.008903 0.032343 0.054171 0.010600 0.046012 0.034795 -0.010241 0.028599 0.016550 0.041031 -0.006373 
_*2 0.015323 0.013922 -0.003811 -0.018388 0.016675 0.005137 -0.005937 -0.006805 -0.004175 -0.011623 -0.001003 -0.002880 -0.021351 -0.015157 -0.006688 -0.000871 0.013266 0.002352 0.001618 0.014910 0.004044 0.002565 0.015326 -0.001849 -0.005736 
hate -0.002802 -0.012291 -0.011935 0.000740 0.015984 -0.004982 0.000850 -0.017740 0.014748 -0.004656 0.013889 -0.009618 -0.003892 0.000946 0.013352 0.000026 0.019991 -0.003619 0.010120 0.000895 -0.016146 0.016739 0.004193 -0.011253 0.012391 
phone -0.045944 -0.043316 0.029971 -0.021998 -0.029911 0.031103 0.029218 -0.009681 0.022140 0.047859 0.046781 0.007679 -0.032493 0.011651 -0.039657 0.008637 0.034402 0.004064 0.012179 0.035473 -0.039306 -0.009110 -0.006127 -0.000055 0.024048 
_*3 -0.024606 0.008342 0.007306 0.012244 0.012408 0.003544 0.004962 -0.022519 -0.006047 0.017158 -0.003200 0.017947 -0.006078 -0.016685 -0.013515 0.024113 0.019549 -0.017383 0.025091 -0.014127 -0.022686 0.009785 -0.002570 -0.007745 0.000032 
Oh -0.016559 0.005630 0.018010 0.019293 -0.022734 -0.007108 0.001492 -0.008552 0.013077 0.013950 0.025590 -0.012593 0.007032 0.017839 -0.011024 0.016779 0.012271 -0.020264 0.025436 0.024627 -0.015194 -0.001044 -0.005702 0.013206 -0.014756 
gosh 0.007510 -0.008938 -0.002389 -0.007715 -0.023511 -0.007336 -0.003504 0.014605 -0.013495 -0.013763 0.008865 0.003625 0.011146 0.000450 0.010843 0.018401 0.003156 -0.002489 0.012263 0.012562 0.010173 0.014454 -0.009227 -0.007924 -0.002867 
Why -0.013930 0.002736 -0.013852 -0.009276 -0.022481 0.010805 0.018450 -0.011497 -0.019241 0.015498 0.009985 -0.009816 -0.003796 -0.005289 -0.002478 -0.005114 0.004463 -0.011254 0.018960 0.018194 0.011392 -0.006556 0.002130 0.005273 -0.009426 
this -0.047849 -0.027242 0.001068 0.019298 -0.006094 0.023316 -0.005181 0.003107 -0.012849 0.034053 0.036818 0.028823 0.006942 0.009292 -0.027742 0.037751 0.025875 0.009979 0.052251 0.055381 -0.011792 0.011286 0.026404 -0.001486 0.032194 
happening -0.045740 -0.019429 0.008513 0.020307 -0.035505 0.005697 0.003452 -0.013547 0.015554 0.012003 0.002216 -0.003804 0.012738 0.006553 0.000429 -0.003671 0.026731 -0.001591 0.012361 0.040791 -0.030878 0.013523 -0.006370 0.023699 0.023866 
me -0.017197 0.007654 0.005511 0.023112 -0.022777 0.000025 0.014842 0.011805 0.007210 0.003169 0.013472 -0.000593 0.007090 0.013301 -0.021787 -0.000154 0.031339 -0.000078 0.032999 0.033058 -0.000991 -0.019731 0.022136 0.013282 -0.016096 
? -0.000773 -0.035649 -0.001953 0.019723 0.003627 0.004333 0.011339 -0.023163 -0.023034 0.022816 0.035925 0.017617 0.006999 0.006696 0.000092 0.009788 0.026968 -0.012609 0.018823 0.020032 -0.007212 0.011283 0.004614 -0.010954 0.000780 
_*4 -0.018743 -0.010580 -0.004710 0.006806 0.002079 0.032474 -0.011835 -0.005515 -0.019602 0.015041 0.036772 0.010240 -0.029907 -0.012969 -0.007882 0.023682 0.059403 0.007995 0.012590 0.031229 -0.008363 -0.008064 0.017982 -0.004398 0.037208 
do -0.029615 -0.052081 0.015423 0.002991 -0.015320 0.033202 0.011971 -0.020812 -0.007159 0.013308 0.034308 0.025129 0.007227 0.014203 -0.044007 0.024429 0.031413 0.013909 0.054220 0.054173 -0.002282 0.007998 -0.002609 -0.003525 0.004142 
n't -0.032143 -0.014207 0.012460 0.007871 -0.003823 -0.000444 0.015372 -0.017838 -0.023897 0.030794 0.007711 0.003930 -0.021796 0.023129 -0.017942 -0.004586 0.042485 0.006339 0.036819 0.028769 0.007664 -0.001593 0.021999 0.024061 0.018433 
like -0.019873 -0.009532 0.026700 -0.011014 -0.014677 0.018451 0.014860 -0.009396 0.010072 0.022061 0.035188 -0.011617 -0.014184 0.010740 0.011778 0.023535 0.030644 -0.024127 0.001067 0.041011 0.002097 -0.016253 -0.002704 -0.010687 -0.005471 
Apple 0.003344 -0.034611 0.015912 -0.009119 -0.024613 0.008396 -0.013010 -0.023968 -0.006448 0.042392 0.018132 0.020137 -0.030747 0.019949 -0.009174 0.015083 0.040458 0.012974 0.005467 0.036906 0.002156 -0.002738 0.021766 0.012712 0.028246 
_*5 -0.022860 -0.034472 0.030560 -0.017087 -0.025291 0.043605 0.032591 -0.040943 -0.000512 0.050360 0.042094 0.024322 -0.000266 0.028070 -0.024684 0.012560 0.060742 -0.026714 0.038474 0.036745 0.011816 -0.022016 0.012927 0.034436 0.021310 
water -0.013358 -0.014947 0.018460 0.012746 -0.017263 0.030701 0.023724 -0.002444 -0.015592 0.007573 0.014550 0.001331 -0.013840 -0.013834 -0.023420 0.033407 0.045757 -0.024175 0.021977 0.049957 -0.012328 0.014847 0.000772 0.010421 -0.000568 
wet -0.012084 -0.043326 0.025403 -0.009421 -0.003920 0.005406 -0.004833 0.001134 0.005341 0.029329 0.038077 0.016675 -0.009381 0.023846 0.006180 0.031018 0.056253 -0.010528 0.007772 0.016170 -0.004183 0.000690 0.025875 -0.002354 0.028270 
_*6 -0.055028 -0.059938 0.051504 0.015378 -0.077220 0.102816 -0.001140 -0.108638 -0.001293 0.077842 0.152010 -0.003130 -0.023815 0.037286 -0.040838 0.042540 0.177137 -0.013631 0.118086 0.105895 0.012673 0.019317 0.069277 0.085088 0.029689 
chair -0.067966 -0.057923 0.015140 0.045555 -0.038660 0.031486 0.054896 -0.055978 -0.019287 0.042130 0.105139 0.010327 -0.027214 0.005844 -0.032328 0.042383 0.150607 -0.028842 0.082141 0.128434 0.012339 0.024844 0.056217 0.000789 0.008297 
black -0.187364 -0.125818 0.020717 0.025768 -0.072080 0.066224 0.067274 -0.135548 -0.032623 0.088261 0.151285 0.001512 -0.014420 0.000710 -0.086797 0.073041 0.198370 -0.060758 0.167913 0.174079 -0.048029 0.017835 -0.008178 0.002611 0.015221 
_*7 -0.038193 -0.042544 -0.003769 0.014913 -0.046228 0.015878 0.021107 -0.005856 -0.025787 0.022498 0.066705 0.019752 0.009056 0.022907 -0.031847 0.016658 0.070422 0.006976 0.060070 0.065849 -0.030003 -0.019977 0.015662 -0.006590 0.028898 
wall 0.000215 -0.022351 0.022279 -0.014454 0.005182 0.003948 0.003149 -0.033061 0.008428 0.029790 0.005311 -0.003190 0.001674 0.019812 -0.007492 -0.009146 0.031585 -0.011575 0.024554 0.040742 -0.015069 -0.010871 0.004822 0.002729 -0.001087 
white -0.091567 -0.069849 0.011624 0.034701 -0.042416 0.051504 0.039459 -0.072644 -0.043716 0.081265 0.104357 0.027706 -0.028124 0.002684 -0.026910 0.035154 0.122681 -0.036892 0.074307 0.123347 -0.049574 -0.012255 0.008921 0.040034 0.031519 
... -0.044049 -0.087390 0.032795 -0.008423 -0.062303 0.040225 0.044644 -0.064891 -0.005059 0.060132 0.111712 0.029811 -0.028547 -0.001757 -0.036586 0.038598 0.113952 -0.010722 0.091613 0.115761 0.005384 -0.024577 0.056293 0.000195 0.033030 
_*8 -0.032624 -0.018660 0.024310 -0.004763 -0.005429 0.002875 0.000762 0.000963 0.004713 -0.004573 0.028046 0.001379 0.005407 0.004719 -0.022026 0.011259 0.011272 0.009610 0.024421 0.029746 0.004772 0.018920 0.024582 0.014860 0.019985 
Tesla -0.004745 -0.017504 0.024666 0.004296 -0.006345 0.008416 0.010466 -0.014215 0.012538 0.020728 0.021461 0.002370 0.006653 -0.008930 -0.016644 0.015423 0.030274 -0.019797 0.014455 0.016009 -0.011978 0.013524 0.024723 -0.010889 0.019853 
just -0.149954 -0.111426 0.058709 0.038367 -0.124522 0.114743 0.027489 -0.101680 -0.029642 0.122430 0.163540 0.014893 -0.013075 0.003226 -0.092626 0.086801 0.215086 -0.053586 0.179322 0.177919 -0.023368 -0.034180 0.073312 0.027597 0.062269 
launched -0.094286 -0.114143 0.019676 0.029516 -0.063868 0.083082 0.056734 -0.082646 -0.051170 0.124504 0.130523 -0.008018 -0.003466 -0.007480 -0.040484 0.089399 0.209212 -0.028490 0.130931 0.164422 -0.026239 -0.034438 0.032786 0.039396 0.052487 
a -0.260657 -0.251652 0.078592 0.120127 -0.223357 0.261580 0.080761 -0.224615 -0.097762 0.292142 0.423775 0.027858 -0.002091 -0.002080 -0.117932 0.168190 0.512569 -0.044374 0.425235 0.451770 -0.092083 -0.084784 0.158167 0.091913 0.164750 
new -0.075539 -0.068448 0.014593 0.004331 -0.033181 0.059496 0.019264 -0.037273 -0.019075 0.046950 0.066799 0.005291 -0.008980 -0.000214 -0.049140 0.014366 0.112278 0.005943 0.073064 0.104028 -0.026654 -0.032427 0.007055 0.018640 0.018565 
_*0 0.000803 -0.014696 0.015013 -0.008909 0.005209 0.014388 -0.001030 -0.018789 0.011999 0.003199 0.013123 0.002620 0.009296 0.017362 0.010596 -0.014058 -0.004774 0.012501 -0.005485 -0.008196 0.017914 -0.005758 0.018004 0.010830 0.015485 
model -0.032351 -0.070883 0.025420 0.032234 -0.049235 0.050112 -0.004012 -0.021790 -0.030557 0.054649 0.077153 0.004792 -0.000613 0.010750 -0.053230 0.016927 0.091398 -0.003754 0.061973 0.083557 0.009000 -0.022822 0.042696 0.000678 0.005887 
love 0.012894 -0.014895 -0.002300 -0.019176 -0.014555 0.011943 0.006833 -0.014896 0.005692 0.017571 0.003974 -0.017765 -0.013242 0.012612 -0.012752 0.007843 0.011771 0.017693 0.004780 -0.012448 0.013853 -0.016562 -0.005306 0.016989 0.016131 
Macbook -0.009529 -0.014883 0.001776 0.011729 0.009419 0.014172 0.017540 0.003773 -0.019094 0.009985 -0.010094 0.005386 0.015557 -0.009319 0.014498 -0.000305 -0.006003 -0.015616 -0.003058 0.019825 0.006851 -0.010779 0.012863 -0.011100 -0.005256 
_*1 0.008474 -0.017035 0.002380 -0.012205 -0.009303 0.021647 -0.001875 -0.017508 -0.000957 0.013550 0.017182 0.004565 -0.009182 -0.008121 0.005423 0.026100 0.022915 -0.020870 0.004494 -0.015778 0.004868 -0.014790 0.007120 0.017635 -0.001302 
NY -0.012574 -0.019819 0.006013 -0.016778 -0.003172 0.021224 0.017448 0.010033 0.008550 0.003367 0.001225 -0.014542 -0.000505 -0.012732 -0.014464 0.015286 0.003481 -0.018033 0.009033 0.007750 -0.010023 -0.017121 -0.020430 0.015630 -0.003052 
best -0.004312 -0.014121 0.018350 -0.018997 -0.019218 -0.002838 0.004453 0.010070 0.001360 0.007252 0.016382 0.010555 -0.021051 -0.004226 0.004688 0.020703 0.016953 0.005277 0.019611 0.011879 -0.009472 -0.010381 0.012804 0.009505 0.010136 
